idx,bias
0,-1.978588581085205
1,-1.7508375644683838
2,-1.5524673461914062
3,-2.1757898330688477
4,-2.259711980819702
5,-3.568011522293091
6,-2.784735918045044
7,-2.4762990474700928
8,-2.7344346046447754
9,-3.625699520111084
10,-1.9265413284301758
11,-3.15020751953125
12,-2.7744431495666504
13,-3.135800361633301
14,-2.6503982543945312
15,-3.17641282081604
16,-1.7867141962051392
17,-1.7065651416778564
18,-1.2273564338684082
19,-2.4475483894348145
20,-2.6000070571899414
21,-1.9644838571548462
22,-1.9561395645141602
23,-2.377945899963379
24,-2.0037477016448975
25,-2.8050622940063477
26,-2.5663464069366455
27,-2.2469401359558105
28,-2.932682991027832
29,-2.240755081176758
30,-2.437333345413208
31,-3.6617889404296875
32,-2.168896436691284
33,-1.9341286420822144
34,-2.143373966217041
35,-3.177018404006958
36,-1.7462184429168701
37,-2.493461847305298
38,-2.5506014823913574
39,-3.6710550785064697
40,-1.9249088764190674
41,-1.9585766792297363
42,-3.5604991912841797
43,-3.2349047660827637
44,-2.3484697341918945
45,-3.153582811355591
46,-2.6348047256469727
47,-2.983494758605957
48,-1.2381114959716797
49,-1.9959914684295654
50,-1.261380672454834
51,-1.8967278003692627
52,-2.0754384994506836
53,-1.488539218902588
54,-2.2852792739868164
55,-1.9856369495391846
56,-1.7649825811386108
57,-2.74959659576416
58,-2.065455436706543
59,-3.0871987342834473
60,-3.1014835834503174
61,-3.343528985977173
62,-3.5471434593200684
63,-2.671308755874634
64,-2.0332038402557373
65,-2.8470189571380615
66,-2.6364328861236572
67,-1.4847677946090698
68,-2.280052661895752
69,-2.757538318634033
70,-1.4450621604919434
71,-2.204726457595825
72,-2.9543817043304443
73,-2.406604528427124
74,-2.2707860469818115
75,-2.3347971439361572
76,-2.6285481452941895
77,-2.9123659133911133
78,-2.1632604598999023
79,-1.9216129779815674
80,-2.14164137840271
81,-1.829616665840149
82,-1.1963951587677002
83,-3.4640557765960693
84,-2.6047377586364746
85,-2.071988105773926
86,-2.1750783920288086
87,-1.9732346534729004
88,-2.8591763973236084
89,-3.362421989440918
90,-3.733212947845459
91,-2.6183900833129883
92,-1.5650978088378906
93,-2.328974485397339
94,-2.241633415222168
95,-2.340618848800659
96,-2.856714963912964
97,-2.8788599967956543
98,-3.1287424564361572
99,-2.509136915206909
100,-1.5834914445877075
101,-1.729907751083374
102,-1.8861008882522583
103,-2.382645606994629
104,-1.6626977920532227
105,-1.8719667196273804
106,-2.266845941543579
107,-2.5528011322021484
108,-3.054694890975952
109,-2.406484603881836
110,-2.665309190750122
111,-2.163869619369507
112,-2.6090171337127686
113,-2.4043095111846924
114,-2.230437755584717
115,-3.2799768447875977
116,-2.785214900970459
117,-3.5310399532318115
118,-2.186283826828003
119,-2.5925347805023193
120,-2.426011323928833
121,-2.4524288177490234
122,-3.2905046939849854
123,-2.455624580383301
124,-3.0905086994171143
125,-2.254596471786499
126,-2.435852527618408
127,-2.561316967010498
128,-2.9078571796417236
129,-3.132418632507324
130,-2.490661859512329
131,-2.23644757270813
132,-2.797492504119873
133,-1.576725721359253
134,-2.7141101360321045
135,-2.0769078731536865
136,-2.2845375537872314
137,-2.411285400390625
138,-2.0948638916015625
139,-2.669949531555176
140,-2.2863242626190186
141,-3.2847588062286377
142,-1.8190419673919678
143,-3.187335729598999
144,-2.023332118988037
145,-2.226393938064575
146,-2.551713466644287
147,-2.196072816848755
148,-2.1969168186187744
149,-2.4363508224487305
150,-3.788267135620117
151,-3.6880147457122803
152,-3.1258950233459473
153,-4.220703601837158
154,-2.046322822570801
155,-2.652960777282715
156,-2.8063063621520996
157,-3.6719911098480225
158,-2.7669765949249268
159,-2.929426670074463
160,-2.3918092250823975
161,-2.2173125743865967
162,-2.761704206466675
163,-2.27767276763916
164,-2.6599788665771484
165,-2.5233492851257324
166,-2.614344358444214
167,-2.302492618560791
168,-2.647939682006836
169,-1.9344727993011475
170,-2.7149007320404053
171,-2.2540385723114014
172,-2.1728134155273438
173,-1.9252878427505493
174,-1.8550736904144287
175,-3.1126832962036133
176,-2.2800207138061523
177,-3.889681816101074
178,-3.7267885208129883
179,-2.5234217643737793
180,-2.22928524017334
181,-2.8656625747680664
182,-2.9586312770843506
183,-2.832207202911377
184,-2.965909242630005
185,-2.4813292026519775
186,-3.4921560287475586
187,-2.4922521114349365
188,-2.880796194076538
189,-2.3373212814331055
190,-2.3609585762023926
191,-1.7405105829238892
192,-3.7706756591796875
193,-2.1903998851776123
194,-2.648174285888672
195,-1.9214245080947876
196,-2.4216456413269043
197,-3.136570692062378
198,-3.2756776809692383
199,-1.7295118570327759
200,-3.5385780334472656
201,-3.2348506450653076
202,-2.1993894577026367
203,-2.257479667663574
204,-3.4219958782196045
205,-2.525620937347412
206,-2.978646755218506
207,-2.2453196048736572
208,-2.5606746673583984
209,-2.9671313762664795
210,-2.8008298873901367
211,-3.2981581687927246
212,-2.5559654235839844
213,-1.2233521938323975
214,-1.5580263137817383
215,-1.5827126502990723
216,-2.3922476768493652
217,-2.6601386070251465
218,-3.331052780151367
219,-2.459230422973633
220,-2.3392839431762695
221,-2.995605707168579
222,-1.9481654167175293
223,-2.281104564666748
224,-2.591609239578247
225,-2.16595458984375
226,-2.271350622177124
227,-2.7100820541381836
228,-2.7046451568603516
229,-3.369654417037964
230,-2.562342643737793
231,-3.5329456329345703
232,-4.114518642425537
233,-1.9102866649627686
234,-1.8821275234222412
235,-2.297457695007324
236,-2.1897950172424316
237,-1.9292213916778564
238,-2.1955010890960693
239,-1.879284143447876
240,-2.2081048488616943
241,-2.6825244426727295
242,-1.964205026626587
243,-1.627243161201477
244,-1.514945149421692
245,-2.414903163909912
246,-2.9885454177856445
247,-1.2711971998214722
248,-2.099130153656006
249,-2.0627806186676025
250,-2.485969066619873
251,-3.2338144779205322
252,-2.1636879444122314
253,-3.2692534923553467
254,-1.753068447113037
255,-3.5860257148742676
256,-1.8730878829956055
257,-2.416422128677368
258,-2.8427796363830566
259,-1.9709582328796387
260,-3.5922443866729736
261,-1.8273558616638184
262,-2.0386054515838623
263,-2.3458094596862793
264,-2.469893217086792
265,-2.818655490875244
266,-0.8527826070785522
267,-3.5037055015563965
268,-2.3467955589294434
269,-1.6895673274993896
270,-2.1441709995269775
271,-2.538248062133789
272,-2.080296754837036
273,-2.3285892009735107
274,-1.6936618089675903
275,-2.274022102355957
276,-3.4261274337768555
277,-2.1469733715057373
278,-1.9903538227081299
279,-3.231100082397461
280,-2.271937608718872
281,-1.9519805908203125
282,-2.0853586196899414
283,-2.983736753463745
284,-3.046053409576416
285,-3.451646089553833
286,-2.056856393814087
287,-4.185177326202393
288,-2.016397714614868
289,-3.5338711738586426
290,-1.9885364770889282
291,-1.644047498703003
292,-2.5015757083892822
293,-2.4770264625549316
294,-2.0625827312469482
295,-2.683246374130249
296,-2.1529717445373535
297,-2.044297695159912
298,-3.5770716667175293
299,-0.8214483857154846
300,-2.2129344940185547
301,-2.383533000946045
302,-1.2915462255477905
303,-2.7288496494293213
304,-2.631026268005371
305,-2.7995543479919434
306,-3.5911641120910645
307,-2.563216209411621
308,-2.3657784461975098
309,-2.3270626068115234
310,-3.3369951248168945
311,-2.0696487426757812
312,-2.691330909729004
313,-2.08621883392334
314,-2.5951921939849854
315,-2.847593307495117
316,-1.8203935623168945
317,-2.038239002227783
318,-2.85312819480896
319,-3.322709560394287
320,-2.8612043857574463
321,-2.2445385456085205
322,-2.08695387840271
323,-1.1483547687530518
324,-2.4784960746765137
325,-2.3869521617889404
326,-2.9971158504486084
327,-1.9395298957824707
328,-2.499126434326172
329,-3.2529447078704834
330,-2.573519706726074
331,-1.022878885269165
332,-2.084801197052002
333,-2.5405240058898926
334,-2.8488574028015137
335,-2.0736241340637207
336,-1.605285406112671
337,-3.0653350353240967
338,-2.4252212047576904
339,-2.775113105773926
340,-1.9974745512008667
341,-2.4688947200775146
342,-2.3587422370910645
343,-2.0716652870178223
344,-3.22586989402771
345,-2.560318946838379
346,-1.8774882555007935
347,-3.0792109966278076
348,-2.760624408721924
349,-3.1680567264556885
350,-1.6238915920257568
351,-3.0268843173980713
352,-1.6047968864440918
353,-2.638375759124756
354,-1.4457446336746216
355,-3.028251886367798
356,-1.802071213722229
357,-1.710461974143982
358,-2.107696771621704
359,-2.858429193496704
360,-2.1292483806610107
361,-2.0678865909576416
362,-1.725028395652771
363,-3.892115592956543
364,-0.8713972568511963
365,-3.5596718788146973
366,-2.9572606086730957
367,-2.7264671325683594
368,-2.688080072402954
369,-3.2323899269104004
370,-2.795240640640259
371,-2.5072426795959473
372,-2.207247257232666
373,-0.6813072562217712
374,-1.7875951528549194
375,-1.534010648727417
376,-1.9412925243377686
377,-2.8947160243988037
378,-3.3905298709869385
379,-2.481523036956787
380,-2.017428159713745
381,-2.829725503921509
382,-2.024493455886841
383,-2.228440523147583
384,-3.2015233039855957
385,-2.6491506099700928
386,-2.1836979389190674
387,-1.4919710159301758
388,-2.8095531463623047
389,-2.526353359222412
390,-2.070923328399658
391,-1.8414722681045532
392,-1.1325833797454834
393,-3.001685857772827
394,-2.943331718444824
395,-1.7467612028121948
396,-1.557774543762207
397,-1.3783057928085327
398,-2.6556153297424316
399,-2.0165464878082275
400,-2.922078847885132
401,-2.38638973236084
402,-1.4460196495056152
403,-2.721348762512207
404,-3.246492862701416
405,-3.7307419776916504
406,-1.819648027420044
407,-2.0888590812683105
408,-1.870669960975647
409,-3.1858413219451904
410,-2.510188341140747
411,-2.166717290878296
412,-2.9957902431488037
413,-3.0374886989593506
414,-2.0006253719329834
415,-3.0694985389709473
416,-2.5792744159698486
417,-1.9937143325805664
418,-2.951904535293579
419,-2.297267198562622
420,-2.6008572578430176
421,-2.100977897644043
422,-3.1375136375427246
423,-2.9178476333618164
424,-2.339296579360962
425,-3.9309816360473633
426,-2.984905481338501
427,-3.229308843612671
428,-2.122250556945801
429,-2.482572078704834
430,-1.4134936332702637
431,-3.567439079284668
432,-2.5433785915374756
433,-2.746701955795288
434,-1.7495343685150146
435,-4.051505088806152
436,-3.084850788116455
437,-1.5007076263427734
438,-0.9268926382064819
439,-3.472041130065918
440,-2.672461986541748
441,-1.8888614177703857
442,-2.2011561393737793
443,-2.4929728507995605
444,-2.2418131828308105
445,-2.1910247802734375
446,-3.034817695617676
447,-3.130147933959961
448,-1.6098450422286987
449,-2.5528204441070557
450,-2.079857110977173
451,-3.0608808994293213
452,-3.4388699531555176
453,-2.617969036102295
454,-2.271192789077759
455,-3.3491764068603516
456,-1.643602728843689
457,-2.563659906387329
458,-1.7250196933746338
459,-0.8203065991401672
460,-1.5975432395935059
461,-1.5562210083007812
462,-1.951998233795166
463,-2.1628735065460205
464,-3.4832541942596436
465,-1.8829567432403564
466,-2.704838275909424
467,-2.762533664703369
468,-2.4651174545288086
469,-2.35929536819458
470,-3.4442453384399414
471,-2.3132481575012207
472,-2.578204393386841
473,-2.5214662551879883
474,-2.753347396850586
475,-2.660151243209839
476,-1.9682135581970215
477,-3.254927635192871
478,-1.4660700559616089
479,-2.0491931438446045
480,-2.626701831817627
481,-2.9741098880767822
482,-2.5918235778808594
483,-2.3502886295318604
484,-2.691800355911255
485,-2.2768471240997314
486,-2.570404291152954
487,-1.8872044086456299
488,-2.1322708129882812
489,-1.8023898601531982
490,-1.7240971326828003
491,-1.2522122859954834
492,-3.086455821990967
493,-1.1510144472122192
494,-2.6406378746032715
495,-2.490952491760254
496,-2.10650897026062
497,-3.1186623573303223
498,-3.182182788848877
499,-2.7898449897766113
500,-3.409379720687866
501,-1.2293579578399658
502,-2.55080246925354
503,-2.4012181758880615
504,-2.2382867336273193
505,-2.4808425903320312
506,-2.4462485313415527
507,-2.342026710510254
508,-2.1738626956939697
509,-2.835155963897705
510,-2.442293643951416
511,-1.947331190109253
512,-3.0724551677703857
513,-1.9757384061813354
514,-3.013031244277954
515,-2.835183620452881
516,-2.357213020324707
517,-1.7521147727966309
518,-2.5903263092041016
519,-3.0401623249053955
520,-3.696274518966675
521,-2.671300172805786
522,-2.459630012512207
523,-2.5972542762756348
524,-2.527545213699341
525,-2.1833906173706055
526,-2.99239444732666
527,-1.4705960750579834
528,-1.5482598543167114
529,-2.9345812797546387
530,-2.5609664916992188
531,-2.86443829536438
532,-3.1882526874542236
533,-2.629301071166992
534,-2.641713857650757
535,-3.3687055110931396
536,-2.420954942703247
537,-2.7533881664276123
538,-3.4562153816223145
539,-2.1402368545532227
540,-1.8776367902755737
541,-2.635265350341797
542,-3.004875421524048
543,-1.385987401008606
544,-2.8910610675811768
545,-2.7153797149658203
546,-1.7061915397644043
547,-2.206631898880005
548,-1.8431857824325562
549,-2.0940980911254883
550,-2.4303154945373535
551,-1.9315184354782104
552,-1.3377628326416016
553,-2.895763397216797
554,-3.3015284538269043
555,-2.188056230545044
556,-2.969769239425659
557,-2.2268049716949463
558,-1.8507630825042725
559,-2.1168479919433594
560,-2.514495372772217
561,-1.2927849292755127
562,-2.247441291809082
563,-1.649047613143921
564,-2.1636643409729004
565,-2.159806728363037
566,-0.880827009677887
567,-2.33085560798645
568,-1.6817209720611572
569,-3.4942362308502197
570,-2.0508484840393066
571,-2.129377841949463
572,-2.4123528003692627
573,-2.0487232208251953
574,-0.9997708797454834
575,-3.4453530311584473
576,-2.3233442306518555
577,-2.158961296081543
578,-1.4727264642715454
579,-3.1574289798736572
580,-2.2605409622192383
581,-1.819314956665039
582,-1.8335109949111938
583,-1.9409947395324707
584,-1.950989007949829
585,-2.8046023845672607
586,-2.5431880950927734
587,-2.8159964084625244
588,-2.6869850158691406
589,-3.3389129638671875
590,-2.8056650161743164
591,-1.775214672088623
592,-2.0571036338806152
593,-3.0860819816589355
594,-2.0814316272735596
595,-2.674466609954834
596,-2.466989517211914
597,-1.956796407699585
598,-1.880519986152649
599,-2.1585912704467773
600,-2.1055214405059814
601,-2.5157082080841064
602,-1.6703602075576782
603,-2.7468037605285645
604,-2.8146190643310547
605,-2.4674384593963623
606,-2.1969664096832275
607,-3.1716442108154297
608,-3.216526508331299
609,-3.639350652694702
610,-3.98897123336792
611,-2.1673848628997803
612,-3.2265594005584717
613,-1.8054338693618774
614,-2.8995954990386963
615,-3.3102595806121826
616,-0.9828706979751587
617,-2.524895191192627
618,-2.5902576446533203
619,-2.6688804626464844
620,-1.9134255647659302
621,-2.755059242248535
622,-2.0194921493530273
623,-1.6640969514846802
624,-2.0598578453063965
625,-1.0467429161071777
626,-2.8579492568969727
627,-1.4581356048583984
628,-2.3048651218414307
629,-2.6491119861602783
630,-2.098212242126465
631,-2.917186737060547
632,-1.908943772315979
633,-2.032583713531494
634,-2.542550563812256
635,-1.6330265998840332
636,-1.9789005517959595
637,-3.3669023513793945
638,-2.8149421215057373
639,-2.330146312713623
640,-2.4491584300994873
641,-2.3930540084838867
642,-2.2707996368408203
643,-1.6517436504364014
644,-1.3178215026855469
645,-1.7584216594696045
646,-3.346017837524414
647,-2.0944342613220215
648,-1.9061696529388428
649,-2.227034091949463
650,-2.522244691848755
651,-2.0028369426727295
652,-1.9634740352630615
653,-2.5991947650909424
654,-2.0786850452423096
655,-3.2521650791168213
656,-2.2828385829925537
657,-2.5525221824645996
658,-2.636455774307251
659,-2.488132953643799
660,-3.5007123947143555
661,-2.3146116733551025
662,-3.2811076641082764
663,-1.715771198272705
664,-2.5030295848846436
665,-2.1512162685394287
666,-2.670513153076172
667,-3.0934200286865234
668,-2.7122342586517334
669,-1.9903099536895752
670,-2.569693088531494
671,-0.9345071911811829
672,-2.625905990600586
673,-2.8273425102233887
674,-2.528036117553711
675,-2.5504980087280273
676,-2.1309995651245117
677,-2.1468446254730225
678,-2.528517484664917
679,-3.5962865352630615
680,-1.183020830154419
681,-2.016500234603882
682,-1.609127163887024
683,-2.264890193939209
684,-2.6842076778411865
685,-2.791501998901367
686,-1.9683581590652466
687,-2.0114433765411377
688,-3.4909780025482178
689,-2.476912260055542
690,-1.8459091186523438
691,-2.684851884841919
692,-3.3606598377227783
693,-1.9028929471969604
694,-2.410221576690674
695,-2.2467520236968994
696,-1.8942536115646362
697,-1.9535523653030396
698,-2.4201948642730713
699,-1.5677239894866943
700,-3.0650980472564697
701,-1.9431087970733643
702,-2.6120545864105225
703,-3.7307419776916504
704,-3.2752628326416016
705,-2.2857651710510254
706,-2.8144726753234863
707,-3.310314178466797
708,-2.342867851257324
709,-1.6909524202346802
710,-1.9070740938186646
711,-3.348137617111206
712,-2.148678779602051
713,-2.5800113677978516
714,-3.9487550258636475
715,-1.9462586641311646
716,-2.2641544342041016
717,-3.5531606674194336
718,-2.9165735244750977
719,-2.3548243045806885
720,-3.0578386783599854
721,-3.0107052326202393
722,-2.170595407485962
723,-3.4082088470458984
724,-2.7935822010040283
725,-2.7520956993103027
726,-2.165503740310669
727,-2.7777090072631836
728,-2.1427974700927734
729,-2.2771570682525635
730,-3.2907354831695557
731,-2.8763468265533447
732,-4.030985355377197
733,-3.0953338146209717
734,-2.4793992042541504
735,-1.7076693773269653
736,-2.7305312156677246
737,-2.630500316619873
738,-1.8291879892349243
739,-2.5678844451904297
740,-2.126039981842041
741,-2.5883803367614746
742,-2.162078857421875
743,-2.0722973346710205
744,-1.061367154121399
745,-2.6888325214385986
746,-1.9372042417526245
747,-2.113168954849243
748,-2.57346773147583
