idx,bias
0,-2.156963348388672
1,-1.9441386461257935
2,-1.5835894346237183
3,-2.6156249046325684
4,-3.3182716369628906
5,-2.93418025970459
6,-3.01761794090271
7,-2.9529306888580322
8,-2.741379737854004
9,-3.4100568294525146
10,-1.9882303476333618
11,-3.5878806114196777
12,-2.1813461780548096
13,-2.9343783855438232
14,-2.51889967918396
15,-3.1005640029907227
16,-1.953123927116394
17,-2.168393850326538
18,-1.4471818208694458
19,-2.986910343170166
20,-2.565063953399658
21,-1.8918075561523438
22,-2.3407585620880127
23,-2.535728931427002
24,-1.4392753839492798
25,-2.287919044494629
26,-2.92177152633667
27,-2.2344563007354736
28,-3.121428966522217
29,-2.4237048625946045
30,-2.1524205207824707
31,-2.366590738296509
32,-1.9240995645523071
33,-2.644608974456787
34,-2.7339630126953125
35,-2.9649455547332764
36,-2.199725866317749
37,-3.0230820178985596
38,-2.48260235786438
39,-2.9425747394561768
40,-2.0313639640808105
41,-2.997722864151001
42,-2.5967557430267334
43,-2.9970715045928955
44,-2.9963202476501465
45,-3.549203395843506
46,-2.4141273498535156
47,-2.2869889736175537
48,-1.5986276865005493
49,-2.568453550338745
50,-1.7985923290252686
51,-1.28780996799469
52,-2.801743268966675
53,-1.4347566366195679
54,-1.6853551864624023
55,-2.459049701690674
56,-1.553507685661316
57,-1.9432204961776733
58,-2.332197666168213
59,-2.611636161804199
60,-3.135080575942993
61,-3.0935044288635254
62,-3.464428663253784
63,-2.9191975593566895
64,-2.190892457962036
65,-3.617867946624756
66,-2.5487213134765625
67,-1.8042441606521606
68,-2.246264696121216
69,-2.9057157039642334
70,-1.449231505393982
71,-1.47907555103302
72,-2.315415382385254
73,-1.7702131271362305
74,-3.046968936920166
75,-2.3106095790863037
76,-2.8493125438690186
77,-2.429405927658081
78,-2.2360472679138184
79,-2.694230079650879
80,-2.1277875900268555
81,-2.095109224319458
82,-1.45315420627594
83,-2.7907190322875977
84,-2.4412992000579834
85,-2.2547574043273926
86,-2.55122971534729
87,-1.752173662185669
88,-3.076171875
89,-2.715594530105591
90,-4.093522071838379
91,-2.7363603115081787
92,-1.925577998161316
93,-1.93660569190979
94,-2.859677791595459
95,-2.3078033924102783
96,-2.6563453674316406
97,-3.2474913597106934
98,-2.6564271450042725
99,-3.026243209838867
100,-1.900684118270874
101,-1.6187283992767334
102,-2.1914703845977783
103,-2.6504859924316406
104,-2.3349127769470215
105,-1.563467264175415
106,-2.371364116668701
107,-2.3730580806732178
108,-3.801935911178589
109,-2.74038028717041
110,-2.271921157836914
111,-2.317326784133911
112,-2.7544870376586914
113,-2.308040142059326
114,-2.591240167617798
115,-3.5081045627593994
116,-2.6942718029022217
117,-4.0522661209106445
118,-2.4231996536254883
119,-3.131364345550537
120,-2.4311695098876953
121,-1.8169870376586914
122,-2.7161216735839844
123,-2.2477622032165527
124,-2.3135623931884766
125,-2.363248586654663
126,-3.291781425476074
127,-2.5612523555755615
128,-3.798374652862549
129,-3.6959471702575684
130,-1.9719783067703247
131,-2.851022720336914
132,-2.8049662113189697
133,-1.6596627235412598
134,-2.77075457572937
135,-2.081385612487793
136,-2.2945785522460938
137,-2.231224536895752
138,-2.279700756072998
139,-3.081076145172119
140,-2.6972575187683105
141,-3.5348868370056152
142,-2.1413354873657227
143,-2.949941635131836
144,-2.410860061645508
145,-1.1799126863479614
146,-1.827226996421814
147,-1.9132118225097656
148,-2.0167429447174072
149,-2.6232333183288574
150,-2.9280855655670166
151,-3.2913877964019775
152,-2.998821258544922
153,-3.991757869720459
154,-2.127007484436035
155,-3.003340005874634
156,-3.4241344928741455
157,-4.849783420562744
158,-3.1486454010009766
159,-2.743224859237671
160,-2.475658893585205
161,-1.8217055797576904
162,-2.337357521057129
163,-2.7658677101135254
164,-2.6097145080566406
165,-3.123692035675049
166,-3.2106707096099854
167,-2.442570209503174
168,-3.08158016204834
169,-2.938446283340454
170,-2.363412618637085
171,-2.1942262649536133
172,-2.411797285079956
173,-1.9543105363845825
174,-2.0299949645996094
175,-3.7545344829559326
176,-2.8207643032073975
177,-3.141814708709717
178,-2.8680851459503174
179,-2.1244115829467773
180,-1.893081545829773
181,-2.5177345275878906
182,-2.359600067138672
183,-3.3688626289367676
184,-3.0889573097229004
185,-1.58902108669281
186,-2.8620877265930176
187,-2.417161226272583
188,-2.506319046020508
189,-1.7943917512893677
190,-2.214559555053711
191,-1.904555320739746
192,-3.0867815017700195
193,-2.2474544048309326
194,-2.5111958980560303
195,-3.281003952026367
196,-2.2064151763916016
197,-2.9780163764953613
198,-3.0484495162963867
199,-2.008176326751709
200,-4.408960819244385
201,-3.828826904296875
202,-2.8610990047454834
203,-2.9990761280059814
204,-3.984663486480713
205,-2.7063450813293457
206,-2.990483522415161
207,-2.014052391052246
208,-2.3654863834381104
209,-2.6666054725646973
210,-2.2530386447906494
211,-2.6419358253479004
212,-2.070786237716675
213,-1.3918355703353882
214,-1.3696609735488892
215,-1.606212854385376
216,-2.7875454425811768
217,-2.218822479248047
218,-3.920698642730713
219,-2.0921225547790527
220,-2.0221710205078125
221,-2.347683906555176
222,-2.8006160259246826
223,-1.9913944005966187
224,-2.322568655014038
225,-2.8299667835235596
226,-2.551689863204956
227,-2.5380640029907227
228,-1.957558035850525
229,-4.613184928894043
230,-2.289273738861084
231,-3.152780055999756
232,-3.565221071243286
233,-1.9618576765060425
234,-1.6282912492752075
235,-2.5471248626708984
236,-2.301041841506958
237,-2.0119433403015137
238,-1.9673842191696167
239,-1.816825032234192
240,-2.455209732055664
241,-2.9272220134735107
242,-1.8376541137695312
243,-1.2731668949127197
244,-1.6444202661514282
245,-2.312772750854492
246,-2.3292245864868164
247,-1.4986199140548706
248,-2.4668779373168945
249,-2.37906551361084
250,-2.5764191150665283
251,-2.701637029647827
252,-2.3263280391693115
253,-4.134376049041748
254,-2.158363103866577
255,-3.265213966369629
256,-2.2276339530944824
257,-2.365953207015991
258,-2.778959035873413
259,-2.366621494293213
260,-3.6580328941345215
261,-1.9541844129562378
262,-2.7735595703125
263,-3.3183913230895996
264,-2.0934505462646484
265,-3.1583707332611084
266,-0.5809335112571716
267,-2.95800518989563
268,-1.807512640953064
269,-2.0020554065704346
270,-1.8235474824905396
271,-2.302551507949829
272,-2.9007375240325928
273,-3.0307891368865967
274,-1.2790473699569702
275,-2.1181342601776123
276,-2.1512889862060547
277,-2.1882851123809814
278,-2.252420425415039
279,-2.837529182434082
280,-1.8620572090148926
281,-2.240051746368408
282,-2.0389623641967773
283,-2.0530753135681152
284,-3.7343244552612305
285,-3.505591630935669
286,-2.235337734222412
287,-3.7757222652435303
288,-2.0209691524505615
289,-2.879246711730957
290,-2.4677679538726807
291,-2.7541017532348633
292,-2.479320764541626
293,-3.6317858695983887
294,-1.8623908758163452
295,-1.7085269689559937
296,-3.1195974349975586
297,-2.3004989624023438
298,-3.124197006225586
299,-1.3035800457000732
300,-2.144454002380371
301,-2.404799222946167
302,-1.9339123964309692
303,-2.630504846572876
304,-2.4042227268218994
305,-2.589775323867798
306,-3.3345634937286377
307,-3.1713004112243652
308,-2.271123170852661
309,-2.088359832763672
310,-3.5960986614227295
311,-1.8222756385803223
312,-2.358110189437866
313,-2.2819674015045166
314,-2.3490536212921143
315,-2.6185314655303955
316,-2.783085584640503
317,-1.912030816078186
318,-2.021846055984497
319,-3.8575150966644287
320,-3.1462998390197754
321,-2.4208762645721436
322,-2.2845120429992676
323,-1.2192552089691162
324,-2.7235116958618164
325,-1.6509634256362915
326,-2.2524757385253906
327,-1.901908040046692
328,-2.7767317295074463
329,-2.9401943683624268
330,-2.3741188049316406
331,-0.882091224193573
332,-3.4871397018432617
333,-3.4631688594818115
334,-3.4801454544067383
335,-2.5240280628204346
336,-1.4401295185089111
337,-2.776714324951172
338,-2.8028297424316406
339,-2.773865222930908
340,-1.9082655906677246
341,-2.259777307510376
342,-2.3322830200195312
343,-2.5957255363464355
344,-3.298426866531372
345,-2.6824142932891846
346,-1.9217685461044312
347,-2.7047834396362305
348,-2.312147378921509
349,-3.622288703918457
350,-2.010266065597534
351,-3.306818962097168
352,-1.5030720233917236
353,-2.3596343994140625
354,-1.611162781715393
355,-2.708477020263672
356,-2.3468496799468994
357,-2.652451992034912
358,-3.0125021934509277
359,-2.524918556213379
360,-2.4246134757995605
361,-2.0905656814575195
362,-1.3006021976470947
363,-3.1194725036621094
364,-1.0972954034805298
365,-2.149362087249756
366,-4.290189743041992
367,-2.2253427505493164
368,-2.732671022415161
369,-3.789043426513672
370,-3.157017230987549
371,-3.058152914047241
372,-1.8643430471420288
373,-1.408835768699646
374,-1.7063994407653809
375,-1.1627169847488403
376,-2.1955032348632812
377,-1.789264440536499
378,-2.918865442276001
379,-2.6946935653686523
380,-2.582855701446533
381,-2.1385297775268555
382,-2.521423816680908
383,-2.349050998687744
384,-3.337641716003418
385,-1.615265965461731
386,-2.3904638290405273
387,-2.1973090171813965
388,-2.34326171875
389,-1.8084795475006104
390,-2.3333585262298584
391,-1.7831521034240723
392,-0.8877834677696228
393,-2.747586250305176
394,-2.6038453578948975
395,-2.446127414703369
396,-2.0668983459472656
397,-1.0727896690368652
398,-3.048490047454834
399,-2.4588303565979004
400,-2.120286464691162
401,-1.987683892250061
402,-1.862080693244934
403,-2.561041831970215
404,-3.2589447498321533
405,-2.480194330215454
406,-2.1999549865722656
407,-2.8129000663757324
408,-2.1280412673950195
409,-4.1079816818237305
410,-2.0558831691741943
411,-2.3333168029785156
412,-4.089399814605713
413,-2.049086093902588
414,-2.5096242427825928
415,-2.9559197425842285
416,-3.005035638809204
417,-2.3918774127960205
418,-3.4129786491394043
419,-2.7114031314849854
420,-3.707880973815918
421,-1.851855754852295
422,-2.4440698623657227
423,-2.980041980743408
424,-2.5006093978881836
425,-4.0621514320373535
426,-4.110666275024414
427,-3.302408218383789
428,-2.5600204467773438
429,-2.9239766597747803
430,-1.8704009056091309
431,-3.1598434448242188
432,-2.686675786972046
433,-3.043956756591797
434,-2.619424343109131
435,-3.646040201187134
436,-1.6432195901870728
437,-2.4645848274230957
438,-0.5853597521781921
439,-2.969332695007324
440,-2.616959810256958
441,-2.0612845420837402
442,-2.196470022201538
443,-2.908317804336548
444,-1.8439239263534546
445,-2.0437521934509277
446,-3.5537683963775635
447,-2.5034544467926025
448,-2.4265029430389404
449,-3.016266107559204
450,-1.9733976125717163
451,-3.6163082122802734
452,-2.9507014751434326
453,-2.298859119415283
454,-1.8760385513305664
455,-3.2549877166748047
456,-1.5184266567230225
457,-2.4146230220794678
458,-2.0088305473327637
459,-0.9250506162643433
460,-1.6041544675827026
461,-1.6693528890609741
462,-1.729641079902649
463,-2.217451810836792
464,-3.5098891258239746
465,-1.8941943645477295
466,-2.200270891189575
467,-2.3673667907714844
468,-2.8740625381469727
469,-2.101212739944458
470,-2.865433931350708
471,-2.354607105255127
472,-2.4698901176452637
473,-2.5249927043914795
474,-3.2642135620117188
475,-3.2622334957122803
476,-2.3255982398986816
477,-3.401771068572998
478,-1.497734785079956
479,-2.959368944168091
480,-3.0523502826690674
481,-3.542171001434326
482,-2.872175693511963
483,-2.450460433959961
484,-2.6743357181549072
485,-2.5884957313537598
486,-2.220823287963867
487,-1.6232043504714966
488,-2.056957244873047
489,-2.851400375366211
490,-1.7770493030548096
491,-0.9073073267936707
492,-2.671957492828369
493,-1.2504013776779175
494,-2.569439172744751
495,-2.803208112716675
496,-2.2097530364990234
497,-3.3150687217712402
498,-3.305023431777954
499,-2.9834280014038086
500,-3.8211421966552734
501,-1.6120827198028564
502,-2.022270917892456
503,-2.2190120220184326
504,-2.8557181358337402
505,-2.769580841064453
506,-2.428236484527588
507,-2.455078125
508,-2.148129940032959
509,-2.512763500213623
510,-2.3451151847839355
511,-2.6704318523406982
512,-2.9854516983032227
513,-2.3546576499938965
514,-2.953136920928955
515,-2.206995964050293
516,-2.2959797382354736
517,-1.792443871498108
518,-2.736682415008545
519,-3.471614360809326
520,-3.246614456176758
521,-2.712921619415283
522,-2.086634635925293
523,-2.004760265350342
524,-2.439568042755127
525,-2.1781277656555176
526,-1.9559956789016724
527,-2.5184106826782227
528,-1.6767916679382324
529,-3.010132312774658
530,-1.624800205230713
531,-2.66432785987854
532,-1.8715379238128662
533,-2.0404090881347656
534,-2.8434669971466064
535,-3.03413462638855
536,-2.6027743816375732
537,-2.933396339416504
538,-3.1541080474853516
539,-2.136143445968628
540,-1.9692195653915405
541,-2.5242867469787598
542,-2.7139694690704346
543,-0.8692510724067688
544,-2.322347640991211
545,-2.418588399887085
546,-2.362093210220337
547,-3.171118974685669
548,-1.704229474067688
549,-1.5925339460372925
550,-1.8353041410446167
551,-2.0196657180786133
552,-1.1525068283081055
553,-2.5033462047576904
554,-2.493903636932373
555,-2.500760793685913
556,-3.251962900161743
557,-2.3179893493652344
558,-1.8335504531860352
559,-2.892577886581421
560,-2.6663949489593506
561,-1.5935783386230469
562,-2.106847047805786
563,-2.5153119564056396
564,-2.5955028533935547
565,-1.6102445125579834
566,-1.1860185861587524
567,-1.8159496784210205
568,-2.1146047115325928
569,-3.3185367584228516
570,-2.7721588611602783
571,-2.216393232345581
572,-2.3586533069610596
573,-2.081615447998047
574,-1.1911704540252686
575,-3.3099253177642822
576,-2.233846426010132
577,-2.450472831726074
578,-1.6412873268127441
579,-3.021491527557373
580,-2.402167558670044
581,-2.205366849899292
582,-1.530813217163086
583,-1.7580749988555908
584,-1.9896982908248901
585,-2.181664228439331
586,-3.6931354999542236
587,-2.8896727561950684
588,-2.570672035217285
589,-3.1832854747772217
590,-3.241673469543457
591,-1.8310728073120117
592,-2.087005853652954
593,-2.6238298416137695
594,-2.8964128494262695
595,-2.379382848739624
596,-2.3273239135742188
597,-2.1188888549804688
598,-2.342604637145996
599,-2.5345184803009033
600,-1.9132664203643799
601,-2.4904608726501465
602,-1.474347710609436
603,-2.9913907051086426
604,-2.4359755516052246
605,-2.3232555389404297
606,-1.9019668102264404
607,-2.5828824043273926
608,-2.2662699222564697
609,-3.6415560245513916
610,-2.9564566612243652
611,-2.0921216011047363
612,-2.2900960445404053
613,-2.12447452545166
614,-3.0966155529022217
615,-2.9985427856445312
616,-1.43828547000885
617,-2.906672477722168
618,-3.203521966934204
619,-2.814512014389038
620,-1.3340790271759033
621,-2.1192941665649414
622,-2.1552364826202393
623,-2.1269078254699707
624,-2.147300958633423
625,-1.2396719455718994
626,-1.7778769731521606
627,-1.1334043741226196
628,-2.934908866882324
629,-2.5074119567871094
630,-2.2921483516693115
631,-2.569143533706665
632,-2.0829598903656006
633,-1.9308134317398071
634,-2.487427234649658
635,-2.3134682178497314
636,-1.7941242456436157
637,-2.7924532890319824
638,-2.7515370845794678
639,-2.842576026916504
640,-3.152789354324341
641,-2.3400628566741943
642,-1.9037669897079468
643,-2.638397216796875
644,-1.9123798608779907
645,-1.8486206531524658
646,-3.392703056335449
647,-2.5209062099456787
648,-2.147559404373169
649,-2.8930697441101074
650,-2.560325860977173
651,-2.2022523880004883
652,-1.9299132823944092
653,-3.0738344192504883
654,-2.5978751182556152
655,-2.812068223953247
656,-3.1608028411865234
657,-2.6550180912017822
658,-2.736219644546509
659,-2.2278854846954346
660,-2.2729644775390625
661,-2.2757840156555176
662,-2.3822975158691406
663,-1.2068842649459839
664,-2.4975619316101074
665,-2.256951332092285
666,-2.9214749336242676
667,-2.4353044033050537
668,-3.513444662094116
669,-1.9079314470291138
670,-3.207204580307007
671,-1.3722721338272095
672,-3.1495773792266846
673,-2.6849608421325684
674,-2.827451705932617
675,-2.3966903686523438
676,-1.9963394403457642
677,-2.537309169769287
678,-2.2634856700897217
679,-2.607027769088745
680,-1.4358018636703491
681,-2.401106595993042
682,-1.5833770036697388
683,-2.775385618209839
684,-3.4505369663238525
685,-2.8688347339630127
686,-2.190478563308716
687,-2.018008232116699
688,-2.9716873168945312
689,-2.894129991531372
690,-2.803466796875
691,-2.258509635925293
692,-3.0118601322174072
693,-2.3575005531311035
694,-2.3198750019073486
695,-3.6688621044158936
696,-2.4190313816070557
697,-1.72761070728302
698,-2.7614431381225586
699,-1.8264738321304321
700,-3.964076519012451
701,-2.259012460708618
702,-3.185389995574951
703,-2.4801948070526123
704,-3.0336878299713135
705,-2.6274654865264893
706,-3.4540140628814697
707,-2.8096368312835693
708,-2.4737534523010254
709,-1.4761340618133545
710,-2.1621899604797363
711,-3.4362878799438477
712,-1.863188624382019
713,-2.519071102142334
714,-3.867908477783203
715,-2.3240444660186768
716,-2.4574692249298096
717,-3.0589652061462402
718,-3.0072970390319824
719,-2.1118412017822266
720,-3.1115520000457764
721,-1.9538432359695435
722,-2.734489917755127
723,-2.4800381660461426
724,-3.283513069152832
725,-2.040740489959717
726,-2.7835028171539307
727,-3.459787607192993
728,-2.7122461795806885
729,-2.672492265701294
730,-3.284534215927124
731,-2.990891218185425
732,-3.699970006942749
733,-2.2614052295684814
734,-2.3389668464660645
735,-2.191377878189087
736,-2.3592357635498047
737,-3.12880802154541
738,-2.0883657932281494
739,-3.3622984886169434
740,-2.5161681175231934
741,-2.7870066165924072
742,-2.372812032699585
743,-2.076991558074951
744,-1.7736752033233643
745,-2.9412147998809814
746,-2.6601333618164062
747,-2.2922298908233643
748,-2.5291781425476074
