idx,bias
0,-2.3327150344848633
1,-2.376147747039795
2,-2.360231399536133
3,-2.2520101070404053
4,-3.2418503761291504
5,-2.974886417388916
6,-2.280979871749878
7,-3.0569591522216797
8,-3.8098948001861572
9,-3.8955793380737305
10,-1.902688980102539
11,-2.7341654300689697
12,-3.066436290740967
13,-3.8432438373565674
14,-3.121854305267334
15,-3.5071475505828857
16,-2.1774370670318604
17,-2.080387830734253
18,-1.2903335094451904
19,-3.4928698539733887
20,-3.0983917713165283
21,-2.1310195922851562
22,-2.744546890258789
23,-3.889408826828003
24,-1.5267460346221924
25,-3.3590824604034424
26,-2.580726146697998
27,-1.7613463401794434
28,-2.85394287109375
29,-1.9149227142333984
30,-2.6360888481140137
31,-3.611872911453247
32,-2.3921921253204346
33,-2.4410481452941895
34,-2.1641151905059814
35,-3.1702613830566406
36,-1.5823578834533691
37,-3.0013132095336914
38,-3.1331114768981934
39,-4.3869524002075195
40,-1.652390718460083
41,-2.6553354263305664
42,-2.987429618835449
43,-3.0581836700439453
44,-2.194226026535034
45,-3.256425380706787
46,-2.9287502765655518
47,-2.9807770252227783
48,-1.4227800369262695
49,-2.577147960662842
50,-1.6322237253189087
51,-2.5231740474700928
52,-2.0885958671569824
53,-1.554435133934021
54,-2.863064765930176
55,-1.858984112739563
56,-2.1352717876434326
57,-2.0066657066345215
58,-2.4926726818084717
59,-3.9479451179504395
60,-3.256517171859741
61,-2.9119248390197754
62,-4.465973854064941
63,-3.1632516384124756
64,-2.872572898864746
65,-3.409658908843994
66,-2.4877877235412598
67,-1.6360042095184326
68,-2.352384567260742
69,-2.803497314453125
70,-1.9956564903259277
71,-1.6913188695907593
72,-3.00274658203125
73,-2.1141719818115234
74,-2.7979445457458496
75,-3.120415687561035
76,-2.7689454555511475
77,-3.5076022148132324
78,-2.397056818008423
79,-2.2102880477905273
80,-1.9738223552703857
81,-1.9264204502105713
82,-1.4029722213745117
83,-2.5914013385772705
84,-3.3544328212738037
85,-2.1373581886291504
86,-2.5402891635894775
87,-2.0429747104644775
88,-2.519653081893921
89,-2.8915348052978516
90,-2.7402396202087402
91,-2.792496681213379
92,-1.9942610263824463
93,-2.9446957111358643
94,-2.168637752532959
95,-2.2723381519317627
96,-2.0938315391540527
97,-3.4249155521392822
98,-4.323598384857178
99,-2.7320282459259033
100,-2.4813742637634277
101,-1.9742112159729004
102,-2.7712957859039307
103,-2.975074291229248
104,-2.7267324924468994
105,-1.3411893844604492
106,-2.293513298034668
107,-2.990154981613159
108,-4.0429205894470215
109,-2.817909002304077
110,-2.6848816871643066
111,-2.3715198040008545
112,-2.4481282234191895
113,-2.5688846111297607
114,-2.1555957794189453
115,-3.8352818489074707
116,-3.08430814743042
117,-2.563309907913208
118,-2.717616319656372
119,-2.8459362983703613
120,-2.0485589504241943
121,-2.6015191078186035
122,-2.8355138301849365
123,-3.2648723125457764
124,-3.9303951263427734
125,-3.092250108718872
126,-3.047856330871582
127,-2.5232996940612793
128,-3.9507369995117188
129,-2.757503032684326
130,-2.562283515930176
131,-2.3157644271850586
132,-2.6505773067474365
133,-2.356050491333008
134,-2.3975727558135986
135,-2.413301706314087
136,-2.457888126373291
137,-2.6926519870758057
138,-2.328768253326416
139,-3.3085293769836426
140,-3.063255548477173
141,-4.456529140472412
142,-1.895017147064209
143,-3.220670223236084
144,-2.9718616008758545
145,-2.757760763168335
146,-2.460598945617676
147,-2.585402488708496
148,-2.512136936187744
149,-2.3629250526428223
150,-3.2267587184906006
151,-3.2473130226135254
152,-3.443387746810913
153,-3.9683189392089844
154,-3.300389528274536
155,-2.317653179168701
156,-3.008596181869507
157,-4.682051181793213
158,-2.9341650009155273
159,-2.083603858947754
160,-2.5910604000091553
161,-1.484060287475586
162,-2.4921889305114746
163,-3.0559229850769043
164,-2.7853145599365234
165,-3.1712169647216797
166,-3.167844772338867
167,-2.9111361503601074
168,-3.1673688888549805
169,-2.072911262512207
170,-2.0068588256835938
171,-2.4595344066619873
172,-2.024698257446289
173,-1.9859976768493652
174,-2.2025146484375
175,-3.68923282623291
176,-2.978435516357422
177,-3.747812032699585
178,-2.7858588695526123
179,-2.24215030670166
180,-2.896371364593506
181,-2.820934295654297
182,-2.4051098823547363
183,-3.2312111854553223
184,-2.9038920402526855
185,-2.0374257564544678
186,-5.215028285980225
187,-2.418149471282959
188,-3.2106313705444336
189,-2.416818141937256
190,-3.3515453338623047
191,-1.3124427795410156
192,-3.627669095993042
193,-2.13435435295105
194,-2.8577756881713867
195,-2.3831419944763184
196,-2.6943578720092773
197,-3.2616751194000244
198,-2.9061224460601807
199,-2.426427125930786
200,-4.085503101348877
201,-3.862276077270508
202,-2.3442258834838867
203,-3.4020211696624756
204,-4.049252033233643
205,-2.2345590591430664
206,-3.4800260066986084
207,-3.299344301223755
208,-2.286703109741211
209,-2.5712780952453613
210,-2.3141355514526367
211,-3.351259469985962
212,-2.6038148403167725
213,-1.3860456943511963
214,-1.5727248191833496
215,-1.8230160474777222
216,-3.3544020652770996
217,-2.6207809448242188
218,-4.517880916595459
219,-2.22659969329834
220,-2.1714110374450684
221,-2.0132222175598145
222,-3.3704147338867188
223,-2.5187442302703857
224,-2.958420753479004
225,-3.0675723552703857
226,-2.347463607788086
227,-3.66914701461792
228,-2.9897873401641846
229,-3.1184935569763184
230,-2.8113701343536377
231,-2.974752426147461
232,-3.372382164001465
233,-1.7823960781097412
234,-2.052175998687744
235,-3.1689224243164062
236,-3.228275775909424
237,-1.7455257177352905
238,-2.6971662044525146
239,-2.087486982345581
240,-2.425698757171631
241,-2.8758931159973145
242,-2.4226880073547363
243,-1.7634869813919067
244,-1.2841153144836426
245,-2.5397801399230957
246,-3.8643798828125
247,-1.4791259765625
248,-2.6492557525634766
249,-2.076307773590088
250,-2.59035325050354
251,-3.069823741912842
252,-2.197615385055542
253,-3.507463216781616
254,-2.8774242401123047
255,-3.7303342819213867
256,-2.152932643890381
257,-1.827925682067871
258,-3.2695858478546143
259,-1.8399982452392578
260,-5.075533866882324
261,-1.8260202407836914
262,-2.3971471786499023
263,-3.5124006271362305
264,-2.482064962387085
265,-2.9164137840270996
266,-0.7413524389266968
267,-2.964254379272461
268,-2.778620719909668
269,-2.268821954727173
270,-2.410811424255371
271,-2.269688606262207
272,-2.6821365356445312
273,-2.678527355194092
274,-2.317312717437744
275,-3.087465286254883
276,-2.6263856887817383
277,-2.949920892715454
278,-2.3510921001434326
279,-2.8812568187713623
280,-2.2897374629974365
281,-2.063058614730835
282,-3.17829966545105
283,-3.5477516651153564
284,-3.6272528171539307
285,-4.243093013763428
286,-2.4436745643615723
287,-4.352595806121826
288,-2.262269973754883
289,-3.72611141204834
290,-2.3339931964874268
291,-1.8753389120101929
292,-2.1631593704223633
293,-3.0307440757751465
294,-2.3983707427978516
295,-2.664422035217285
296,-2.591254711151123
297,-3.2291831970214844
298,-4.073459148406982
299,-1.1343611478805542
300,-2.2333881855010986
301,-1.953470230102539
302,-1.794127106666565
303,-2.9516685009002686
304,-2.082717180252075
305,-3.0222935676574707
306,-3.1196823120117188
307,-3.6697728633880615
308,-3.0248095989227295
309,-2.561455249786377
310,-2.8121109008789062
311,-2.0044541358947754
312,-3.3811092376708984
313,-1.921675205230713
314,-2.3532938957214355
315,-2.6889290809631348
316,-2.356415271759033
317,-1.9215681552886963
318,-2.1111111640930176
319,-3.440282106399536
320,-3.044980049133301
321,-2.680619955062866
322,-2.820681095123291
323,-1.120042324066162
324,-2.481440305709839
325,-2.9129905700683594
326,-2.8776001930236816
327,-2.341804265975952
328,-2.593496084213257
329,-4.174728870391846
330,-3.0007612705230713
331,-0.7522013187408447
332,-2.88800048828125
333,-2.9794366359710693
334,-2.8791873455047607
335,-2.4892818927764893
336,-1.9322359561920166
337,-2.6623551845550537
338,-2.580929756164551
339,-3.310314416885376
340,-1.6343787908554077
341,-2.793696403503418
342,-2.426499843597412
343,-2.463956832885742
344,-3.372790813446045
345,-3.607175350189209
346,-2.465320110321045
347,-2.937925338745117
348,-2.734783172607422
349,-2.9814882278442383
350,-2.2205417156219482
351,-3.735914707183838
352,-2.5326569080352783
353,-3.732919454574585
354,-1.9903526306152344
355,-3.734511375427246
356,-2.058148145675659
357,-1.6317071914672852
358,-2.5178871154785156
359,-2.547121524810791
360,-3.334458827972412
361,-2.1803157329559326
362,-1.3899935483932495
363,-4.147535800933838
364,-1.2497916221618652
365,-3.286139488220215
366,-3.8679606914520264
367,-3.035047769546509
368,-3.1950292587280273
369,-3.8886256217956543
370,-2.8969101905822754
371,-2.72835373878479
372,-2.1094210147857666
373,-1.7859846353530884
374,-2.546797275543213
375,-1.0000503063201904
376,-2.0329318046569824
377,-2.0017378330230713
378,-4.476522922515869
379,-3.7821717262268066
380,-2.809502124786377
381,-2.9957218170166016
382,-2.3900017738342285
383,-1.933488130569458
384,-2.9237711429595947
385,-2.525339126586914
386,-2.9487571716308594
387,-2.0443332195281982
388,-2.859771490097046
389,-2.6354966163635254
390,-2.804943084716797
391,-1.7827637195587158
392,-0.5678002834320068
393,-3.43660306930542
394,-3.06355357170105
395,-2.214468002319336
396,-1.2872886657714844
397,-1.872879981994629
398,-3.9581756591796875
399,-2.3259387016296387
400,-2.4681389331817627
401,-2.43988037109375
402,-1.883756160736084
403,-3.099733591079712
404,-3.6089208126068115
405,-4.963648319244385
406,-2.4009532928466797
407,-3.044894218444824
408,-2.358600616455078
409,-3.390097141265869
410,-3.6083598136901855
411,-2.0831432342529297
412,-4.3043904304504395
413,-2.7325851917266846
414,-1.8972893953323364
415,-3.214947462081909
416,-2.7328455448150635
417,-2.1579155921936035
418,-3.2643940448760986
419,-2.664469003677368
420,-3.17624568939209
421,-1.9644010066986084
422,-2.4841527938842773
423,-2.6860713958740234
424,-3.1517302989959717
425,-4.447607517242432
426,-3.5694475173950195
427,-3.5219063758850098
428,-1.9019792079925537
429,-2.5884478092193604
430,-1.9585602283477783
431,-3.763728618621826
432,-2.52321720123291
433,-3.260976791381836
434,-1.9363515377044678
435,-4.526333332061768
436,-2.6309633255004883
437,-1.9304442405700684
438,-0.7194891571998596
439,-4.7389235496521
440,-3.029264211654663
441,-1.5882554054260254
442,-3.150392770767212
443,-2.4286599159240723
444,-3.3463244438171387
445,-1.86555814743042
446,-3.102358341217041
447,-4.274941444396973
448,-2.1807992458343506
449,-2.7170052528381348
450,-2.1069700717926025
451,-3.6880459785461426
452,-2.8917970657348633
453,-3.4641032218933105
454,-2.0353147983551025
455,-4.377881050109863
456,-1.6654053926467896
457,-2.4596567153930664
458,-1.9297535419464111
459,-1.1840214729309082
460,-1.76235032081604
461,-1.875354528427124
462,-2.4506442546844482
463,-2.9477810859680176
464,-3.2542495727539062
465,-2.9149436950683594
466,-2.3043131828308105
467,-2.644423484802246
468,-2.5538721084594727
469,-3.2075116634368896
470,-3.034806489944458
471,-2.4653708934783936
472,-2.1622753143310547
473,-3.032066583633423
474,-3.8311526775360107
475,-2.8649258613586426
476,-2.736222505569458
477,-4.563958644866943
478,-2.4088363647460938
479,-2.5920557975769043
480,-4.110572338104248
481,-3.160104274749756
482,-3.1172022819519043
483,-2.490565299987793
484,-2.4973926544189453
485,-2.496814489364624
486,-2.7350587844848633
487,-2.0234079360961914
488,-2.807356357574463
489,-2.481381416320801
490,-2.0135419368743896
491,-1.4423357248306274
492,-2.391887664794922
493,-1.3059989213943481
494,-2.6918396949768066
495,-3.2886581420898438
496,-2.26350736618042
497,-3.3546369075775146
498,-3.445641040802002
499,-3.3123183250427246
500,-3.141057014465332
501,-1.6106460094451904
502,-2.362748146057129
503,-3.016963005065918
504,-2.506786584854126
505,-3.326974868774414
506,-3.118467330932617
507,-3.1283204555511475
508,-2.3055155277252197
509,-3.1034789085388184
510,-2.4726719856262207
511,-1.9640960693359375
512,-3.1083803176879883
513,-2.4392805099487305
514,-2.7540364265441895
515,-3.1432809829711914
516,-2.393612861633301
517,-1.6125155687332153
518,-2.1416983604431152
519,-3.791840076446533
520,-4.194986343383789
521,-3.751483917236328
522,-2.4913291931152344
523,-3.3028876781463623
524,-2.835352659225464
525,-2.6638267040252686
526,-3.8223748207092285
527,-1.9724652767181396
528,-1.5703564882278442
529,-3.270287036895752
530,-3.016826868057251
531,-3.2403762340545654
532,-2.754216194152832
533,-3.3076400756835938
534,-2.8008806705474854
535,-2.80771803855896
536,-3.0502538681030273
537,-3.2642719745635986
538,-3.6603198051452637
539,-2.5684733390808105
540,-2.1303486824035645
541,-3.591418504714966
542,-2.651921272277832
543,-1.2265520095825195
544,-2.564753532409668
545,-4.261270046234131
546,-2.0320262908935547
547,-2.9805221557617188
548,-1.5802621841430664
549,-1.4137279987335205
550,-2.376383066177368
551,-1.9878730773925781
552,-1.7043696641921997
553,-2.7128775119781494
554,-2.8720691204071045
555,-3.0738472938537598
556,-3.540153980255127
557,-2.495134115219116
558,-2.888747215270996
559,-2.1122560501098633
560,-2.8438329696655273
561,-1.5655701160430908
562,-2.0852394104003906
563,-2.475196123123169
564,-2.042999505996704
565,-1.6408965587615967
566,-0.8054658770561218
567,-1.8111032247543335
568,-2.018726348876953
569,-4.538536548614502
570,-2.987903118133545
571,-2.062087297439575
572,-2.3558268547058105
573,-1.998429298400879
574,-1.1970256567001343
575,-4.227947235107422
576,-2.6048741340637207
577,-2.936405658721924
578,-2.2898831367492676
579,-3.0508873462677
580,-2.855257272720337
581,-1.9404706954956055
582,-2.1928646564483643
583,-1.7276734113693237
584,-1.4000300168991089
585,-3.3931431770324707
586,-2.8117709159851074
587,-2.6320338249206543
588,-2.928950071334839
589,-2.7572174072265625
590,-3.2302184104919434
591,-1.929215669631958
592,-2.3926000595092773
593,-2.1085994243621826
594,-2.2766053676605225
595,-3.2735307216644287
596,-2.733163356781006
597,-2.587402105331421
598,-1.8875470161437988
599,-2.5213799476623535
600,-2.7381818294525146
601,-2.6765146255493164
602,-1.9860484600067139
603,-3.534256935119629
604,-3.7812771797180176
605,-2.1932926177978516
606,-3.5039138793945312
607,-3.207026481628418
608,-2.4234464168548584
609,-4.323710918426514
610,-3.7593820095062256
611,-2.0660886764526367
612,-3.2879538536071777
613,-1.4421539306640625
614,-2.889866590499878
615,-3.8655357360839844
616,-1.040269374847412
617,-3.0422582626342773
618,-3.2289135456085205
619,-2.683318614959717
620,-2.4055891036987305
621,-2.5512988567352295
622,-3.2870125770568848
623,-1.7687642574310303
624,-2.0201616287231445
625,-0.5415188670158386
626,-2.7381796836853027
627,-1.4235237836837769
628,-2.7895030975341797
629,-2.6071267127990723
630,-2.391350746154785
631,-3.3607521057128906
632,-1.7733339071273804
633,-2.4535677433013916
634,-3.57051944732666
635,-1.9163033962249756
636,-2.1001980304718018
637,-3.615903615951538
638,-3.403376579284668
639,-3.1317086219787598
640,-3.0162277221679688
641,-2.2231247425079346
642,-2.697176456451416
643,-2.6491246223449707
644,-1.9989724159240723
645,-2.2915656566619873
646,-4.214982509613037
647,-2.724736452102661
648,-1.8459465503692627
649,-3.0324201583862305
650,-2.219111919403076
651,-2.5692176818847656
652,-2.171271324157715
653,-3.2975504398345947
654,-2.516960620880127
655,-3.796109676361084
656,-4.379244327545166
657,-2.928109645843506
658,-2.284639358520508
659,-3.4446582794189453
660,-3.630859851837158
661,-2.0119032859802246
662,-3.0213823318481445
663,-1.970428228378296
664,-3.295611619949341
665,-2.9950506687164307
666,-2.3968701362609863
667,-3.300785541534424
668,-3.010075807571411
669,-2.400418758392334
670,-3.107827663421631
671,-0.8627497553825378
672,-2.4041879177093506
673,-2.8711864948272705
674,-2.320035457611084
675,-2.4664018154144287
676,-2.7943224906921387
677,-2.3888607025146484
678,-2.8171024322509766
679,-2.561990261077881
680,-1.312638282775879
681,-2.279378652572632
682,-1.964416742324829
683,-2.2752833366394043
684,-3.056699752807617
685,-2.8302180767059326
686,-2.457667350769043
687,-2.0027225017547607
688,-3.0125651359558105
689,-3.312196731567383
690,-2.6969680786132812
691,-3.063781261444092
692,-4.313478469848633
693,-3.1532320976257324
694,-2.9900755882263184
695,-2.5981202125549316
696,-2.276552438735962
697,-2.420287609100342
698,-2.865948438644409
699,-1.6067074537277222
700,-4.370564937591553
701,-2.3392906188964844
702,-3.0763299465179443
703,-4.963647842407227
704,-3.715665817260742
705,-3.169814109802246
706,-3.4603471755981445
707,-3.236517906188965
708,-2.338374614715576
709,-2.165642738342285
710,-1.923511266708374
711,-3.373048782348633
712,-2.2864084243774414
713,-2.2174274921417236
714,-3.537022829055786
715,-2.48791766166687
716,-2.558915138244629
717,-3.633908271789551
718,-3.63826322555542
719,-2.5253748893737793
720,-3.866504669189453
721,-2.425395965576172
722,-2.0839595794677734
723,-3.541727304458618
724,-3.424678325653076
725,-3.1754393577575684
726,-2.2611751556396484
727,-3.1740899085998535
728,-2.647822856903076
729,-2.2526772022247314
730,-3.9077200889587402
731,-2.7417333126068115
732,-3.928978443145752
733,-3.3153882026672363
734,-3.437898635864258
735,-2.9397454261779785
736,-2.593852996826172
737,-3.0742287635803223
738,-2.453463554382324
739,-3.039769172668457
740,-2.9698939323425293
741,-2.680023670196533
742,-2.843902587890625
743,-2.430461883544922
744,-1.7151598930358887
745,-3.200634002685547
746,-2.2717044353485107
747,-1.9496257305145264
748,-3.5862810611724854
